,0,1,2,3,4,5,6,7,8,9,10,11,12,13,14,15,16,17,18,19,20,21,22,23,24,25,26,27,28,29,30,31,32,33,34,35,36,37,38,39,40,41,42,43,44,45,46,47,48,49,50,51,52,53,54,55,56,57,58,59,60,61,62,63,64,65,66,67,68,69,70,71,72,73,74,75,76,77,78,79,80,81,82,83,84,85,86,87,88,89,90,91,92,93,94,95,96,97,98,99,100,101,102,103,104,105,106,107,108,109,110,111,112,113,114,115,116,117,118,119,120,121,122,123,124,125,126,127,128,129,130,131,132,133,134,135,136,137,138,139,140,141,142,143,144,145,146,147,148,149,150,151,152,153,154,155,156,157,158,159,160,161,162,163,164,165,166,167,168,169,170,171,172,173,174,175,176,177,178,179,180,181,182,183,184,185,186,187,188,189,190,191,192,193,194,195,196,197,198,199,200,201,202,203,204,205,206,207,208,209,210,211,212,213,214,215,216,217,218,219,220,221,222,223,224,225,226,227,228,229,230,231,232,233,234,235,236,237,238,239,240,241,242,243,244,245,246,247,248,249,250,251,252,253,254,255,256,257,258,259,260,261,262,263,264,265,266,267,268,269,270,271,272,273,274,275,276,277,278,279,280,281,282,283,284,285,286,287,288,289,290,291,292,293,294,295,296,297,298,299,300,301,302,303,304,305,306,307,308,309,310,311,312,313,314,315,316,317,318,319,320,321,322,323,324,325,326,327,328,329,330,331,332,333,334,335,336,337,338,339,340,341,342,343,344,345,346,347,348,349,350,351,352,353,354,355,356,357,358,359,360,361,362,363,364,365,366,367,368,369,370,371,372,373,374,375,376,377,378,379,380,381,382,383,384,385,386,387,388,389,390,391,392,393,394,395,396,397,398,399,400,401,402,403,404,405,406,407,408,409,410,411,412,413,414,415,416,417,418,419,420,421,422,423,424,425,426,427,428,429,430,431,432,433,434,435,436,437,438,439,440,441,442,443,444,445,446,447,448,449,450,451,452,453,454,455,456,457,458,459,460,461,462,463,464,465,466,467,468,469,470,471,472,473,474,475,476,477,478,479,480,481,482,483,484,485,486,487,488,489,490,491,492,493,494,495,496,497,498,499,500,501,502,503,504,505,506,507,508,509,510,511
0,0.021616671,0.04192856,-0.012335272,0.18925908,0.008931269,-0.032566987,0.041343994,0.06270467,0.043007605,0.0013652834,0.04249024,0.03832878,0.0019524428,0.03364515,0.005236211,0.039289963,0.029762443,-0.1055828,0.03534962,-0.038453754,0.045974113,-0.07548276,0.09082165,0.04531643,-0.022581112,-0.004597695,0.017048046,0.023539385,0.040361,0.06027125,0.051793553,0.020539355,0.08748749,0.03660656,-0.041177142,0.08005036,0.03458079,-0.02298674,0.010234799,0.10027479,-0.022642324,-0.03550119,0.24963892,-0.01708822,-0.0072311615,0.03512631,0.007228986,0.0633804,0.0256667,0.11166037,-0.0523983,-0.013159032,-0.04077115,0.0049572205,-0.018582594,-0.09522288,0.0077092363,0.07755652,0.0654823,0.09614662,0.080158815,0.0066476758,0.007886411,-0.04019025,0.011192326,-0.0231271,0.07118732,0.0945631,-0.022233127,0.08324476,0.005829474,0.053136412,0.042013768,-0.009548817,0.035172578,-0.041221213,0.02509418,-0.05295221,-0.0012404943,-0.026461856,0.07216651,0.021900972,-0.012027445,0.091007985,0.011399035,0.047975793,-0.09064264,0.06706235,-0.034676515,0.05265906,-0.022969576,0.09298132,-0.10635208,-0.005352855,0.007987166,0.06769955,-0.00033598806,-0.029545447,0.029655382,0.031714763,0.011561583,0.0045183757,-0.10343072,0.04537438,-0.0016586122,-0.059540104,0.06156323,0.032396115,0.036610857,0.076603495,-0.01740604,-0.026442386,-0.23133111,-0.061874773,0.00817098,-0.027661873,-0.031332992,-0.051497705,0.0062189763,0.0037131016,0.100740366,-0.06949851,0.022694932,0.075311854,-0.01711895,0.028241817,0.024401167,-0.13778485,-0.037425607,0.020163588,0.031522933,0.021649452,-0.04310794,0.08848008,0.09807246,0.05360207,-0.04182575,-0.015616048,-0.044632357,0.038307067,-0.10105711,0.0015586724,-0.022466639,-0.021149714,-0.10302911,-0.015183912,-0.053096198,0.004607546,0.12235566,-0.01151486,-0.062886976,0.042999387,0.08164077,-0.14830892,-0.015727092,-0.07736442,0.030182816,0.05105067,0.011002962,-0.050788056,0.02924279,-0.024278108,-0.02099373,0.085972466,0.093868256,0.0396975,0.0570445,-0.06696607,0.04389792,0.047824353,0.069271594,0.101810224,0.017381102,-0.023941662,0.035542037,-0.020687584,-0.014158192,0.0065423595,0.0030461652,-0.11441699,-0.04076485,-0.045831025,0.030000057,-0.035646297,0.07174946,-0.022297604,-0.03182884,0.0049428726,0.0708187,-0.045612667,0.008161593,0.09149078,0.025982426,-0.009093151,0.044749845,0.045964926,-0.016097205,0.04281969,0.06287258,0.096720524,0.021625534,-0.15831515,-0.013740139,0.035506662,0.007963871,0.06115267,0.05604712,0.030104324,-0.005533617,0.060632054,0.06132057,-0.015500976,-0.04937526,0.0050966474,-0.0017873257,-0.042173114,0.01768806,-0.039611913,0.07245532,-0.010115643,-0.06835558,-0.026644345,0.057087272,-0.04516465,-0.13550068,0.08492157,0.11025349,-0.03798621,0.026695125,-0.00096348213,0.08780837,-0.021593371,-0.04281072,0.07585552,-0.03724803,0.036362227,0.024852464,-0.07976478,-0.048059665,-0.114281274,-0.03321067,0.079411194,-0.068750285,-0.029728955,-0.009395876,0.032403406,0.015837867,-0.023846947,0.02331209,0.009786373,-0.02052049,-0.017541548,0.017940162,-0.16149639,-0.0058257203,-0.022513073,0.04972564,-0.059226424,-0.034506243,-0.12047165,0.04600386,-0.033322286,-0.02754746,0.02745984,0.054830704,-0.0077023045,0.055437546,-0.02532431,0.027117176,0.053265873,-0.017098095,0.15066057,0.00047829418,-0.04415711,0.007363287,-0.0013633006,0.077278495,-0.041644216,0.09701056,0.022185983,-0.020514522,-0.040471185,0.008617406,-0.027075171,-0.00619808,0.0226591,-0.03873461,-0.041922767,0.073227875,0.028917918,-0.03565278,-0.02974034,0.089939184,-0.0046706153,-0.024455866,0.023695648,0.027609164,0.016367653,0.14896232,0.040190052,0.09833424,0.020848569,0.038230527,0.05422222,0.012209657,0.047276508,0.12123,0.038367696,0.02873912,0.062895305,-0.048927277,-0.0046048877,-0.049188443,0.059394788,0.06241136,0.03521889,0.029652702,0.04294603,-0.047782425,0.06846738,-0.037493307,0.17185181,0.0125905955,0.048458703,-0.11289309,-0.02894834,-0.05581573,0.032570705,0.014332386,0.11753284,-0.08421304,-0.019578526,-0.10822612,-0.016436853,0.030762691,-0.1433583,0.031921625,0.085581936,-0.0069452445,-0.034336712,0.07343379,-0.037496578,0.020999406,-0.017113386,-0.02769896,0.040539037,-0.01329405,-0.016136587,-0.08400973,-0.02884585,-0.01347126,-0.015215906,0.0027559672,0.031701602,0.027264025,0.05616355,0.08797889,0.045925666,-0.0045026396,-0.03713529,-0.02099636,0.009393338,0.03673211,-0.014936453,0.07646585,-0.024618492,0.061821852,-0.14218521,0.05912927,-0.019602206,0.03320712,0.10821907,-0.008315309,0.0624894,0.04841596,0.07314725,-0.055619437,0.028082872,-0.029469889,-0.045293346,-0.03307315,0.095745854,0.08027136,0.06781621,-0.0026003078,0.01850798,-0.0024485404,0.008246278,0.027128868,-0.185113,-0.025601814,-0.055885904,0.04548187,-0.046487186,-0.037625637,0.03781513,-0.0049271896,0.059377547,0.009820766,-0.17359532,-0.021164285,0.037348956,-0.09248549,-0.047476053,-0.010350748,-0.029035138,-0.091480255,0.0018114345,-0.028680213,-0.03415326,-0.03700526,-0.013913269,0.00873562,0.053691033,0.01627236,0.04761192,-0.038345583,0.14158393,0.037744217,0.013395631,0.01832353,0.017812103,0.06872858,-0.012023226,0.09142938,0.04096904,-0.019257339,0.015008047,-0.038526867,-0.009616269,0.053743888,0.049228214,0.046617698,-0.025914853,0.0053038336,0.07100525,0.060061224,0.039028596,-0.059566736,-0.022848368,0.03825508,0.1033057,0.06847608,-0.015059361,0.0417807,-0.036162984,0.013910566,-0.04490569,0.017146517,-0.0072305803,-0.021199377,-0.009987796,-0.030413505,0.09451934,-0.044439595,-0.0006841459,-0.036937952,-0.058244605,-0.024026306,0.040321536,0.06518545,-0.026583057,0.036812536,-0.0085740285,-0.008012517,-0.03337083,-0.050175607,-0.011472316,0.036295712,0.028329387,0.04986192,0.10814252,0.056347277,0.0085080685,0.021157054,-0.031835195,0.078457184,0.038866635,0.050175555,-0.0031608315,-0.01822975,0.021585364,0.03660939,-0.043316662,0.027858473,-0.031037346,0.080040105,-0.012242042,0.08081632,0.09759763,0.037633102,0.00030194555,-0.26028234,0.027156044,-0.052367598,0.12382598,-0.00932785,-0.07126467,0.10299034,0.01827221,0.09116874,0.016176831,0.07538031,0.030718787,0.03181368,0.05374393,0.07811494,-0.051706847,0.04923077,0.013678874,0.03149948,-0.0026576177
1,0.06700262,0.038633987,-0.025745746,0.1861272,-0.009316209,0.00775179,0.008468006,0.0318992,0.018262625,0.0056353468,0.045287646,0.04627465,0.0513859,0.024471331,0.040165585,0.013303973,0.03657262,-0.12241542,0.014655664,-0.037712228,0.044675436,-0.07340072,0.10937379,0.04185642,-0.040334832,-0.013994596,-0.006875768,0.004058835,0.0085791545,0.023637304,0.04070423,0.026190078,0.11457857,0.020735702,-0.04308561,0.11270315,0.056537315,0.0029781647,0.03655438,0.07954951,-0.04235358,-0.017045401,0.19669056,-0.004522767,-0.02238638,0.041505817,-0.03988125,0.007211842,0.044323057,0.11310651,-0.04106226,0.0074212933,-0.077287175,0.028569568,-0.0056776996,-0.08556918,0.06403838,0.08206093,0.060008485,0.1002983,0.095932335,-0.014490394,0.052965377,-0.08679336,0.026886253,-0.024494356,0.08322949,0.06919857,-0.02917005,0.11564697,-0.0035881032,0.033438113,0.034403067,-0.013171465,0.031409327,-0.01936143,0.0058149123,-0.03585278,-0.021939652,0.012452827,0.017699927,0.021027576,-0.029487161,0.046807624,-0.0154422,-0.0049860408,-0.086768694,0.049386382,-0.050639704,0.07271358,-0.019980468,0.065576896,-0.10616018,-0.0008789008,-0.01807829,0.06872736,-0.02273719,-0.0070110997,0.05468395,0.10491838,-0.004332232,-0.016066484,-0.12411539,0.044558514,0.004432079,-0.07135772,0.06444579,0.069566414,0.051014856,0.0581987,-0.025394876,-0.016980756,-0.21140827,-0.079834804,-0.022022061,-0.0066771633,-0.00012275159,-0.06928477,0.017557258,-0.015889464,0.08703813,-0.031242376,0.039986446,0.08165024,-0.002133484,0.023279361,0.03925008,-0.13963576,-0.058794856,-0.006226019,0.012769578,-0.007745573,-0.058107905,0.0710987,0.109969,0.031325247,-0.021248791,-0.026716257,-0.043266606,0.055081844,-0.06644604,-0.023198882,-0.0104662515,-0.016996367,-0.09443922,-0.031572286,-0.057593748,-0.013130615,0.12648445,-0.03852163,-0.07375721,0.04079953,0.06685437,-0.1551471,-0.013208343,-0.031999145,0.046262227,0.07262518,0.0050844694,-0.00414666,0.038770873,0.0049965736,-0.03367819,0.08026022,0.07325996,0.036504652,0.026529921,-0.06594102,0.07787006,0.033484925,0.05071939,0.038834896,0.016682478,-0.018021893,0.0820898,-0.024321027,-0.013982294,0.009188256,0.010895577,-0.11158115,-0.020147683,-0.024486145,-0.01970018,-0.0071067633,0.091456644,-0.0076038027,-0.004119328,0.019359311,0.05361892,-0.0561842,0.020757888,0.077782065,0.020023577,-0.02663075,0.06571805,0.0672,0.006558012,0.037689276,0.0570037,0.09014528,0.01569285,-0.17067027,-0.018041745,0.07448749,0.019378604,0.06700646,0.04505257,0.01276259,0.010377622,0.073841825,0.08366938,-0.021077778,-0.06177308,0.028994402,0.06399843,-0.037748806,0.012339544,-0.030072216,0.09225986,-0.027388567,-0.06207511,0.0073900837,0.104051545,-0.051841486,-0.10874259,0.066070095,0.10764477,-0.047470264,-0.004647358,0.01797924,0.102698006,-0.02049715,-0.01667175,0.037568673,0.0028294388,0.034608077,0.049597733,-0.079863355,-0.11701987,-0.13364367,-0.02687047,0.019936765,-0.066859625,-0.001548025,-0.004556005,0.056065988,0.02490595,-0.015740244,0.021538513,-0.02073089,0.014291903,-0.053296153,-0.0039187665,-0.13983846,0.00026936067,-0.008184893,0.072352044,-0.024664516,-0.024784895,-0.08004027,0.053637274,-0.041849636,-0.03922127,0.025442382,0.04840599,-0.0069599696,0.02498793,-0.0073825405,0.039418,0.084917165,-0.025264876,0.14254192,0.0058652363,-0.041778974,0.008517487,0.044680454,0.09912667,0.029490713,0.105660155,0.01230518,-0.032574233,-0.03552597,0.010829361,-0.068112016,-0.018371845,0.017233113,-0.010985747,-0.019167926,0.09685227,0.028091123,0.0067729903,0.0035691746,0.15759657,-0.011187757,-0.008703535,0.009294709,0.042967595,0.02811934,0.13282536,0.08416257,0.055918436,-0.0017274894,0.044283062,0.044384424,0.055510495,0.057312798,0.10478447,0.033893324,0.051470555,0.012742709,-0.043797787,-0.005919218,-0.06519751,0.061603498,0.08301436,0.0404762,0.051952995,0.0115469275,-0.056763686,0.039250996,-0.032622375,0.15461981,-0.053723503,0.058501977,-0.09374545,-0.04405188,-0.04891298,0.025831712,0.0683069,0.102908246,-0.078441925,-0.06362986,-0.1149634,-0.026215535,0.013426993,-0.16412027,-0.02914935,0.08623281,-0.012797119,-0.0780023,0.055188138,-0.044695802,0.025173372,0.01780755,-0.03488815,0.0125794895,-0.050487347,-0.015894745,-0.039283197,-0.0153101105,-0.018220164,-0.015816156,0.07296743,0.054789007,0.0072355014,0.019280422,0.06669643,0.11198962,0.027907586,-0.025656685,-0.008515865,0.038152125,0.030712483,0.004397025,0.0753312,-0.02134063,0.06213257,-0.14027034,0.049237914,-0.0152422385,0.08335041,0.12677495,0.0028490645,0.09807077,0.057873506,0.0754466,-0.04820524,0.06713177,-0.035517436,-0.06456342,-0.028041113,0.03948555,0.070638016,0.032337315,0.0025070468,-0.024999283,-0.0018587038,0.0132874865,0.018945841,-0.15881285,-0.026537262,-0.051501784,0.026568469,-0.033479095,-0.038819,0.04263745,-0.0042296452,0.08651717,0.067513786,-0.1533195,-0.02090138,0.06282728,-0.065600425,-0.025043745,0.008412733,-0.044156384,-0.09405138,-0.012943721,-0.026312537,-0.031048793,0.00018524294,0.017769132,0.0148794055,0.0694489,-0.002492832,0.022052845,-0.0066986647,0.16308242,0.017637685,-0.014505583,-0.009232181,0.023409074,-0.0370652,-0.0042631864,0.083132595,0.006842313,-0.03328932,-0.03428825,-0.034939867,-0.01845748,0.030734386,0.053913213,0.063156694,-0.002013888,0.008073901,0.0709828,0.07755024,0.051656812,-0.046961877,-0.022871345,0.057976276,0.12154165,0.08155866,-0.028360873,-0.049005933,-0.020289546,0.04678043,-0.029826688,0.007205194,-0.013135555,0.004100037,-0.00030239648,-0.023682265,0.03714111,-0.050415117,-0.037579745,-0.07502499,-0.024167135,-0.050951917,0.015625304,0.056046087,-0.0075674276,0.044970278,-0.08420074,-0.026112787,-0.014943181,-0.052126694,-0.018565822,0.07171513,0.028550383,0.03914081,0.080356956,0.05369401,0.010518579,0.049592312,-0.03489506,0.08047296,0.048907835,0.020501636,-0.004983325,-0.02949382,0.040677834,0.026138829,-0.045201987,0.030120574,-0.027621273,0.09246694,-0.025496922,0.07573817,0.067786895,0.037055474,0.018314965,-0.23626852,0.0056605805,-0.019636935,0.11847642,-0.014680553,-0.097009875,0.07613823,-0.0017332399,0.054583713,0.017341193,0.061202694,0.07038068,0.041167438,0.1013163,0.0805885,-0.057375487,0.041718453,-0.017170569,0.05409023,0.006482371
2,0.018140359,0.04502418,0.03253975,-0.09192873,0.058482483,0.022500437,0.019958409,-0.06187895,-0.0063016913,0.048755623,-0.0057658004,0.029134644,0.018180229,-0.004043512,0.048253767,0.0064371317,0.01655633,-0.14490876,-0.0052798935,0.023091894,-0.029217187,0.19170128,0.014216214,0.025390195,0.10640215,0.14096496,-0.030119607,0.11839599,0.031786874,0.00032632583,0.012647781,-0.0025023944,0.028214565,-0.006698108,0.102829956,0.07164199,-0.0025763842,-0.10787518,0.005333621,-0.0075754584,0.09584354,0.055734914,-0.21765189,0.005744249,0.018511143,0.021069163,-0.04364612,0.009237131,0.015885087,-0.03712505,0.028611777,-0.005706291,0.09402254,0.07550335,-0.047085177,-0.19679482,0.05518074,0.055013485,0.039452963,-0.017130466,-0.048733585,0.07984685,-0.02150805,-0.01433618,-0.011492664,0.02417191,-0.009886477,0.064906456,0.11794488,0.050382473,0.071109116,0.007991803,0.039017666,0.026963394,0.022503996,0.024617627,0.045084566,-0.01662285,0.07085491,0.0015296945,0.022144947,-0.05184064,0.036361225,0.022257729,0.053545937,-0.0018359738,-0.062445518,0.010033282,0.038288634,-0.030728549,0.01094446,-0.021254983,-0.06162404,0.030727385,0.008038607,-0.052458912,0.04169982,0.017065011,0.010273239,0.0136953015,0.04529928,0.012307788,-0.12364491,-0.03277072,0.011239182,0.13173151,-0.045368824,0.040125873,0.007149461,-0.037938565,-0.017675323,0.06651354,0.05343567,-0.052771654,0.03166721,-0.045091245,-0.014026156,0.03379191,3.2488128e-06,0.00935145,-0.006612205,0.019307552,0.05197093,0.022423837,0.012388286,-0.032538917,0.011342043,-0.36850896,0.089040205,-0.005058182,0.0615007,-0.03145226,-0.0033734357,-0.073443815,-0.034350354,0.010414777,0.04039287,0.04340025,-0.014492317,0.019989267,0.17533359,0.067382395,0.0040036426,0.019934682,-0.11639977,-0.02135901,-0.0046270904,0.09812463,0.024416326,0.07191614,0.06816304,0.02661493,-0.017970454,-0.08815256,0.042261023,0.07396205,0.019618079,0.023059832,0.055638615,0.050253272,0.015229302,0.032693584,0.053457502,-0.016762508,-0.01611215,0.0035264422,-0.0058251047,0.1738813,0.06495802,0.058111664,-0.019905359,0.0153662,0.030529035,-0.018264856,0.002204905,0.018538749,0.02370183,0.052755255,0.05736105,-0.20964375,0.037828315,-0.017516362,0.036886066,0.04186623,-0.0013719448,0.03537104,0.0073382203,0.025087535,0.015426266,0.009286479,0.113180794,-0.049057104,0.049608074,0.027758414,0.021057086,0.09850363,0.027912825,0.08922137,-0.0054477965,0.017592117,0.056528423,-0.23402056,0.07027578,0.03401563,0.06855222,0.020469893,0.002047669,-0.002393896,0.0391646,0.045529053,0.005809119,0.0455691,-0.007454201,-0.005981502,-0.01620055,0.060870193,0.0052206623,-0.01874002,-0.013780701,0.054063745,0.014423468,0.023706524,-0.01108147,0.15313171,-0.12759092,-0.040917322,-0.08852188,0.053258337,0.064862356,0.04051827,-0.025263919,0.031097673,0.016736459,-0.017976712,0.024705593,-0.010069891,-0.013531805,-0.037040267,0.10373602,-0.13839538,0.008200632,-0.00067102705,-0.011424849,0.04232813,0.07123147,0.032487445,-0.008180415,0.019161664,-0.008204051,0.0035912876,0.014261224,0.013140646,0.015539309,-0.063126124,0.0800751,-0.007852768,0.02192006,0.10556225,0.014772071,-0.064654894,-0.038096868,0.05183522,0.034865998,0.044932008,0.04267389,0.030729705,-0.024766343,0.027322883,0.062207825,0.0030068895,0.023016227,-0.018217228,-0.016300162,-0.031276327,0.01951986,0.038285345,0.004361556,0.0039757704,-0.011867168,0.0042242687,0.023470594,0.036084704,0.0029014144,0.10545064,-0.007723644,-0.0011140576,0.015948853,-0.009522908,-0.02850214,0.04274747,0.06341136,0.028759044,-0.016244125,0.0011965213,0.01748038,0.06665661,-0.008093668,0.062563166,-0.03823677,0.04403477,0.0021171332,0.014742303,0.0010349035,-0.022158137,0.012402925,0.012119514,-0.058380116,0.0022050943,0.00880269,0.018110523,0.100921854,0.060953207,0.059631556,0.029692624,0.0021669539,-0.038647063,-0.0067978357,0.0037112841,-0.084277295,-0.0001715986,0.0025944938,-0.011950249,0.059629086,0.038522523,0.059089568,0.09090295,0.13386361,-0.031794276,0.05562067,0.0029292891,0.093243316,0.05866271,-0.10562161,0.00029372188,0.0011813681,-0.15526004,0.037411742,0.02097235,0.033277992,0.04783929,-0.038779885,0.08966131,0.022491213,-0.07477275,0.05349387,0.016536709,0.06447441,0.050484832,0.1212639,0.05334886,-0.0044817594,0.027265526,0.0038371987,-0.011209891,0.012601018,0.025720196,0.020537922,-0.014835519,0.10177574,0.094570786,0.13609906,0.15737127,0.058098912,0.04451443,-0.04676227,-0.014096074,0.0007222393,-0.08597261,0.066554226,0.026990468,0.019763278,0.030778294,0.14816046,-0.009866199,-0.022812564,0.015118759,0.042031806,-0.0076247803,0.070821024,0.00728167,0.016723165,-0.016237367,0.009185505,-0.0323137,0.028632598,0.01201074,0.013193502,-0.042858206,0.022769345,-0.14307603,0.0065300856,0.036667325,0.0089167105,0.026198572,0.03105625,0.006575243,0.04134136,-0.018290887,0.022442883,-0.222184,0.086834386,0.0035526112,0.029788781,0.060145997,-0.009022831,-0.05138664,0.20002326,0.020058531,0.010851401,0.020224325,0.03957923,-0.0129688615,-0.0027144593,-0.04454207,0.007443274,0.060783863,-0.006090974,-0.10773457,0.03240929,0.0065520983,0.044369534,0.01331774,0.055072844,0.008551016,-0.062479984,0.06838985,0.031796485,0.10456926,0.03697276,0.051211424,0.030890858,-0.03011549,0.011142487,-0.032302592,0.04563224,0.03861153,0.033904895,0.08210292,0.09833074,0.029433886,0.08650062,-0.044525344,-0.0374203,-0.003139514,-0.004281623,0.08464265,0.06306729,0.022055572,0.012484142,0.034887794,0.066020794,0.011445445,0.042369653,0.01611746,0.056421474,0.051437087,0.046323773,0.031570576,0.11207928,0.012138893,0.0040017352,0.043551393,-0.012565268,0.08116816,0.0115812775,0.01281935,0.007875789,0.010062621,0.056432303,0.029637182,0.028986292,-0.036085807,0.036149696,0.043413546,0.009720688,0.02442203,-0.05997687,0.04663349,0.050818525,0.046563648,-0.0035882364,-0.077865146,0.021102449,0.062102374,0.0063136593,0.025580319,-0.02540949,0.055821326,0.010716181,-0.013774254,-0.034066584,-0.011269196,-0.39989474,0.03443202,0.049664676,0.064994015,0.0008264324,-0.1095372,0.0031803465,0.038732015,0.007674564,-0.022081837,-0.030556416,0.036669284,0.02505805,0.012173387,-0.07530222,-0.0043494776,-0.050507147,0.024583753,0.06361087,0.05979707
3,0.035351202,0.020377688,0.040113296,-0.07952141,0.07247989,0.040761154,0.0024312711,-0.06148855,0.024669189,0.06655968,0.0034493406,0.036225997,0.028639577,-0.017824752,0.051274892,0.01444803,-0.009284726,-0.1509355,-0.0058941,0.03670457,-0.025063671,0.19158272,-0.01721886,0.009938974,0.1131355,0.14079358,-0.02321328,0.06795194,0.014956477,-0.011593635,0.01311105,0.012695253,0.013674957,0.01692591,0.107456245,0.057444938,-0.030632911,-0.13567969,-0.0041988757,0.00035057653,0.08714464,0.058096528,-0.1759244,0.010942782,0.026821319,-0.007704485,-0.020493925,0.018491207,-0.00014064254,-0.04504546,0.020911217,0.039766334,0.09977892,0.07419942,-0.036007907,-0.18132491,0.017201003,0.07921534,0.00038935337,-0.014073549,-0.05240512,0.080084264,0.031143358,-0.006746984,-0.018778674,0.0093086595,-0.0007797145,0.07072976,0.12762628,0.038921855,0.06874458,-0.018530421,0.027929215,0.02235715,-0.0075412225,0.015786897,0.047619093,0.010250206,0.055353522,0.016582657,-0.0049970294,-0.06705417,0.008459135,0.024935821,0.047928665,-0.010245972,-0.039035004,0.0070243427,0.051358033,-0.026045773,0.014283917,-0.014123161,-0.039671592,0.01738017,0.01713347,-0.05132826,0.0007573383,0.0505457,0.03399404,-0.009894357,0.037859842,0.005899465,-0.10031123,0.022400815,-0.0014296215,0.13335633,-0.04063281,0.032094054,0.008633178,-0.040848926,-0.0026784432,0.028066257,0.027468292,-0.029443389,0.01725693,-0.0358495,0.045215826,0.020135649,0.018090991,-0.0006990388,0.0062384647,0.018263439,0.023830354,0.04706,0.016393524,-0.035761643,-0.00891895,-0.32634035,0.109646104,0.03761402,0.028276706,0.024672111,0.011058251,-0.06456759,-0.042935364,-0.0065222094,0.040170558,0.0464043,0.021031115,0.0036311059,0.18121122,0.0484724,0.03011791,0.023343876,-0.0997464,0.0091420775,-0.029495383,0.10190744,0.019816512,0.056736086,0.07707188,0.0013346764,-0.00025191694,-0.10662656,0.038041525,0.05159604,0.007733047,0.027188325,0.06585073,0.03595344,0.01199956,-0.006533749,0.052777294,-0.004722298,-0.013407109,0.025400268,-0.011921619,0.17795889,0.03109932,0.07720277,-0.026249425,-0.026407572,0.032228597,0.015355317,0.03827042,0.049603686,0.020926392,0.036926422,0.015205493,-0.20445459,0.06297306,0.0036375911,0.033630516,0.057830054,0.0059508504,0.05013936,0.02098376,0.010696235,0.0007724513,-0.006558303,0.10472114,-0.03403695,0.045201402,0.012791971,0.014927421,0.08977707,0.034367688,0.0692772,-0.009752383,0.004476498,0.014936483,-0.22727717,0.055879556,0.030617245,0.07356058,0.0017731778,-0.013266181,0.023972709,0.00019367777,-0.011800908,0.012825508,0.043833103,0.014106835,0.03632419,0.0014393907,0.08193853,0.021205736,0.031969663,0.017625242,0.039184175,0.020095522,0.041781243,-0.012424834,0.14256498,-0.106781885,-0.04563254,-0.07660089,0.07792141,0.025494775,0.0117522925,-0.019997062,0.026420895,0.011283251,0.003203488,0.02719413,0.024090057,-0.02448591,-0.018090138,0.13012278,-0.13047595,0.021198755,-0.024290066,0.012715287,0.036445294,0.05796737,0.032005027,0.01476628,0.040601157,0.00256725,-0.006549689,0.023468077,0.018588196,0.014620021,-0.06900287,0.054506935,0.032247186,0.01997194,0.08630232,0.011818295,-0.084037706,-0.022425545,0.04368597,0.0259466,0.023734692,0.008410184,0.026287924,0.0155412415,0.028604954,0.03285116,-0.016417224,0.066044495,0.015761377,-0.026053246,0.008745064,0.015494811,0.004760561,-0.020782184,0.025400227,-0.031698152,0.037412018,0.0140446285,0.025672676,0.033786207,0.10236906,0.006499778,0.0017441595,0.010716745,0.010782886,-0.013830987,0.050255507,0.08948617,0.012835274,-0.07267399,-0.008977731,0.039626848,0.023318939,4.473406e-05,0.03055507,-0.04535076,0.054230276,-0.010919095,0.028791,-0.001644295,-0.037936002,0.029615503,0.0081399055,-0.059016593,0.061049763,0.017139308,0.034372516,0.11605945,0.057095483,0.050208595,0.007729922,-0.024779044,-0.03192397,0.0043693683,0.032783207,-0.08275834,-0.0077248686,0.0058752275,0.03206852,0.06354355,0.059580587,0.071448624,0.09706089,0.14477451,0.008615978,0.054849617,-0.0033227585,0.10969524,0.09117641,-0.08259227,0.015266423,-0.0032954095,-0.15833057,0.04939821,0.018370636,0.03153111,0.070006646,-0.0035340642,0.054163966,-0.0003552094,-0.086415574,0.027501691,0.014129046,0.054438133,0.070017986,0.12735489,0.05894936,0.03313519,0.054752525,-0.0149270715,0.009097129,0.0072781895,-0.0015453825,-0.002103527,-0.033626385,0.10343466,0.09357343,0.14380236,0.18001433,0.0699708,0.037192248,-0.035276435,0.024509361,0.022732327,-0.060181458,0.04425045,0.014926916,0.011384215,0.007565961,0.13903706,-0.0040549967,0.028138943,0.009620243,0.049248885,0.0036993122,0.06809996,0.03083271,0.037603725,-0.0052196016,0.019607851,-0.08172319,0.01043092,0.022295095,0.028570874,-0.019817779,0.045092084,-0.12139422,0.01533805,0.063828014,0.02955569,0.010277604,0.025375407,0.022081677,0.058332432,0.024513092,-0.006414988,-0.20488308,0.035008527,0.004772033,-0.012686395,0.03485571,-0.0058800247,-0.07758592,0.20707174,0.014337445,0.016387174,0.029245568,0.011381395,0.018753583,0.014257487,-0.040062815,0.040731914,0.017715743,0.005364013,-0.0979673,0.026498681,0.013472394,0.033353463,-0.007819893,0.06140612,0.04079984,-0.041134603,0.046017144,0.028301114,0.116681375,0.057875235,0.050254747,0.009526888,-0.034671746,0.010897815,-0.0120401,0.042719446,0.04106263,0.043554302,0.068282954,0.12635827,0.018680843,0.08424318,-0.033019364,-0.022911347,0.03768892,-0.0057346076,0.0966431,0.020894216,0.0492143,-0.0014701803,0.03862426,0.023644062,0.032360207,0.045780692,-0.021916041,0.05987776,0.070081584,0.06881521,0.028708016,0.02795342,-0.014063414,-0.011420433,0.043417852,0.005468755,0.10600857,0.051530365,0.017423956,0.02338179,0.016505633,0.034386106,0.0013960574,0.006352629,-0.008693309,0.02184355,0.019561013,0.026728755,0.03204543,-0.03717266,0.043937653,0.028210862,0.049483836,0.051500846,-0.055934463,0.018131768,0.08555761,-0.0038662925,0.041043136,-0.017849665,0.032041475,-0.027756792,-0.021705346,-0.0033453966,-0.00054747064,-0.36737284,0.03460301,0.048337378,0.09456948,-0.00076279,-0.10387156,-0.030011877,0.046570916,0.0027677217,-0.027614955,-0.0038625472,0.050986134,0.0132640675,0.051496066,-0.059657928,0.016230216,-0.018944215,0.026803918,0.028486094,0.0018607962
4,-0.11432501,-0.077255815,-0.07113448,0.04377493,0.033363413,-0.13809453,-0.14198388,-0.10113307,-0.12830615,-0.05796362,-0.06318551,-0.034755763,-0.12765458,-0.17622611,-0.075036995,-0.02921671,0.021450425,0.31261328,-0.17634998,-0.05961758,-0.100334354,0.01616032,0.018751329,-0.05680209,-0.02513856,0.05700027,0.07004062,0.020798042,-0.03812722,0.07668715,0.036314085,-0.119104356,0.026927616,-0.07514456,-0.022955172,0.0073691388,-0.05298632,0.27591184,-0.06634485,-0.0091053685,0.0004683734,-0.08404001,0.10980858,-0.16650769,-0.00025423788,-0.12975796,0.07460468,0.017421592,-0.04610007,0.00870202,-0.049178243,-0.18608174,0.043327253,0.07068314,-0.0366312,0.17773804,0.03961855,0.009570958,0.02650585,0.039051414,0.034417823,-0.073787905,-0.15590069,0.022588052,-0.08106805,-0.2277807,-0.06276114,-0.021419547,0.056029163,-0.03813939,0.019539373,-0.15985242,-0.001955074,-0.097771876,0.08079427,-0.03275537,-0.018029096,-0.088510945,-0.0662953,-0.17615324,0.039204914,0.123018205,-0.19133158,0.03784323,0.029896207,-0.05594287,-0.07505445,0.0120668,-0.107679866,-0.03822938,-0.096275315,0.059988197,-0.038341988,-0.19410284,-0.114586815,-0.06626132,0.032531098,-0.13253313,-0.11577879,-0.07884242,-0.02358132,-0.17983922,0.32332245,-0.0928269,-0.08840821,0.0188539,-0.1094307,-0.065121904,-0.0811298,0.01645364,-0.14642923,-0.11746743,-0.018046165,0.009234662,-0.07409691,-0.02295611,-0.103958264,-0.00017529364,-0.025026174,-0.014081047,-0.021226987,0.009100904,-0.058882933,0.024747344,-0.08551563,-0.14365366,-0.17614992,0.34579682,0.036871582,-0.15222625,0.07978871,-0.19389787,-0.07053136,-0.016505657,0.036145788,-0.13323157,-0.1818103,-0.07689695,-0.13930471,-0.06136635,0.11865928,0.005943756,-0.17358777,-0.14614192,0.0040391884,-0.058753032,0.05504143,0.021183658,0.014997588,-0.00812111,0.027920354,-0.006677924,-0.03925673,-0.011802699,-0.08166831,0.07057219,-0.09955175,0.0064153397,-0.04197158,-0.013230711,0.004000454,-0.20014171,-0.044315327,-0.046020385,0.032656364,-0.029159786,-0.056927036,0.07650427,0.036980655,-0.037291773,-0.07447283,-0.068302944,0.0061307736,-0.09833022,-0.0707085,-0.23720215,-0.19772412,0.028569402,-0.098066345,0.3270591,-0.04239558,-0.14656273,-0.032939542,-0.062333208,-0.009767976,-0.06428613,-0.08775273,-0.09025801,-0.03715,0.11081757,0.04091139,-0.01634845,0.029646296,0.023621555,-0.05014516,0.023949564,-0.047904093,0.027499128,-0.03234685,0.013290161,-0.10094823,0.16830385,-0.0028726757,-0.101650015,0.039615724,-0.089130014,-0.074587,-0.0961209,-0.10519634,0.050284922,-0.07561664,-0.11191894,0.011967215,-0.15731753,-0.1651564,-0.03560024,-0.09351437,-0.079887636,-0.06571408,-0.066093236,0.04118479,-0.16308166,-0.064637154,0.043221395,0.037369836,0.014600946,0.08258597,-0.053219855,-0.05312719,0.08043576,-0.0069607343,-0.08724144,0.025589744,0.029344019,-0.1822599,-0.09237906,-0.1343392,-0.0063684513,0.026756825,0.044492394,-0.14692473,-0.019352572,0.04788591,0.0020473865,-0.042607687,-0.03716195,-0.08620625,-0.10127291,-0.058199156,0.027121693,-0.2033235,-0.023260333,-0.03602824,-0.00560168,0.01919737,-0.21688381,0.032596234,-0.00090576714,-0.0849516,0.17789663,-0.07888542,-0.03916163,0.013143972,-0.06386629,0.006626995,-0.11441213,-0.055882994,-0.09791388,-0.06746698,0.037291337,-0.089614585,0.015178865,0.0900221,-0.028904075,-0.08402541,0.03859782,-0.038836475,-0.10780785,0.036634117,-0.18181075,-0.046648275,-0.19978978,-0.13800904,-0.05729197,-0.16016191,0.0044196006,-0.18596354,-0.11500501,0.015210369,-0.017745504,-0.0977826,0.05140756,0.04312814,-0.025490658,0.015790123,-0.052455604,-0.13691111,0.045084365,0.016791862,-0.084337704,0.013327047,-0.09703452,-0.14338858,-0.036827073,-0.06887764,-0.02120864,0.05486495,-0.089584894,0.020575797,-0.07579626,0.029523954,-0.09007499,-0.0029139833,-0.05928298,-0.07967046,-0.098569155,-0.062465582,-0.076270506,0.19506364,-0.041817762,-0.05605172,-0.008096973,0.059812438,0.01890506,0.028672798,0.074506976,0.035012875,-0.1744748,-0.060114197,0.03542665,0.02285685,0.01710296,0.0143512385,-0.21694739,-0.057653926,0.034240764,0.052895565,0.0037280929,-0.16053177,0.06712327,-0.006625493,-0.045128867,0.021187218,0.086651616,-0.020146644,-0.007295968,0.05494751,-0.066521175,0.105195865,-0.16518983,-0.22097062,-0.097095475,-0.05534973,-0.042487662,-0.19780312,0.015068158,-0.000877406,-0.053013608,0.035200395,-0.0073849144,0.13320567,0.10152064,0.13885944,-0.10494097,-0.13921954,-0.2027857,-0.07593432,-0.046292905,0.03008487,-0.056986615,-0.1589846,-0.013581199,-0.019488065,-0.006898596,-0.08170085,0.0035577815,-0.072361775,-0.05888096,-0.09209111,-0.070750676,-0.023169523,0.02368785,0.02385442,-0.05453039,0.03998266,-0.15588474,-0.11302257,-0.045420818,0.020778742,-0.017931817,-0.13185738,-0.008644792,-0.08978655,-0.18892072,-0.066304505,-0.03685962,0.0023087421,-0.042594146,-0.13065383,0.30197096,-0.0602079,-0.014750559,-0.08370409,0.013525576,-0.20878848,0.15590402,-0.018480709,-0.16590427,-0.24403302,0.043043837,-0.13711785,-0.17429468,-0.061946917,-0.03533683,-0.12153821,-0.08677598,-0.09042747,0.053944517,-0.035663467,-0.22867914,-0.019231822,-0.07377058,-0.04924752,-0.13218899,0.008852458,0.036658477,-0.10193447,0.024119528,-0.14272675,-0.040229246,0.037684597,-0.029407037,-0.023184925,-0.18059768,-0.078514025,-0.050566938,-0.035756554,0.043543912,0.0052269506,-0.20001584,0.0081964675,0.08253407,-0.0210965,-0.12186498,-0.009893433,-9.4385294e-05,-0.1446112,-0.12979397,-0.15804705,-0.1881885,-0.04418864,-0.11686933,0.059347536,-0.060949482,-0.15510492,-0.015214613,0.014875191,0.018751789,0.05364165,-0.08999582,-0.015744833,-0.077087484,-0.0738896,0.028528249,-0.19785754,-0.15839767,-0.061573222,-0.04983473,0.0058132843,-0.09792094,-0.06856986,0.013621743,-0.03901628,-0.082626075,-0.02651628,-0.080043696,0.007980893,0.04866613,-0.03054544,-0.033129293,-0.15180705,-0.058367603,-0.1486174,-0.05659239,-0.06108891,-0.1362901,-0.027648272,0.036252722,-0.025157895,0.034516085,-0.0325634,-0.1540244,0.07564839,-0.051911376,-0.1183571,0.02087734,-0.06610305,0.26154405,-0.029359648,-0.07343765,0.019590298,-0.009100616,-0.17047809,-0.11628736,-0.029596524,-0.04879284,-0.10544323,-0.08981684,-0.12979633,-0.05489984,0.032019056,-0.11850702
5,-0.006148452,0.015334214,0.0505774,-0.012408136,-0.0062206327,0.13735087,0.06072875,0.17742883,0.084889136,7.601762e-05,-0.01777042,-0.026285497,0.02484633,0.17207946,0.01221356,-0.0029925408,-0.08558687,0.32171473,0.10593953,0.026279401,0.077429414,0.00788393,-0.119876385,0.017392611,-0.064519845,-0.03026671,0.024361353,-0.051412325,-0.09539589,-0.12452397,-0.04010341,0.094108835,-0.07878872,0.0043933312,-0.026427811,-0.08793019,0.04188796,0.24937324,0.008234264,-0.09433323,-0.05385454,0.048751723,-0.032712243,0.1592557,0.008910161,0.13248561,0.066296026,-0.10763726,0.0056710364,-0.06544134,0.049918436,0.13976319,-0.051898178,0.0601454,-0.043983147,0.12979336,-0.12946509,-0.1081919,-0.096146666,-0.057635948,0.020310558,-0.0060570817,0.044614214,0.00502817,0.048314255,0.1716453,0.005797222,-0.098056994,0.03877357,-0.055767402,-0.06590824,0.13909645,-0.060817186,0.082806185,-0.024376024,0.06380161,-0.06722526,0.06423081,0.00012729554,0.18478583,-0.14756152,0.103952296,0.14128959,-0.10341937,-0.06202329,-0.024017537,-0.052885495,-0.06802949,-0.08804439,-0.01129459,0.09412971,-0.15154156,0.0019712506,0.21357995,0.10814894,0.0606526,-0.033664104,0.12492916,0.01972237,-0.027841393,-0.07480457,0.15553506,0.3536933,0.090147845,0.032921966,0.017785177,0.15445204,0.0153135285,0.082080446,-0.02551787,0.1552003,0.10253104,-0.12794384,0.09925292,0.032288857,0.22413765,0.12670429,0.024622865,0.062093604,-0.012398355,-0.07062812,0.012057152,-0.06253004,-0.009182689,0.13731103,0.13114712,0.12209734,0.282437,-0.07280355,0.095244594,-0.111224666,0.14887328,-0.04083194,0.03429033,-0.05938297,0.07955748,0.059559945,0.07612789,0.13097315,0.011510001,0.065189905,-0.05618189,0.20740175,0.19593923,0.041138742,0.097602986,0.044916917,-0.04107282,-0.16141114,-0.034533087,0.024096036,-0.080902405,-0.015044144,-0.111984506,0.06267258,0.062144835,-0.04125265,-0.07970763,-0.07519813,0.041105185,-0.030140376,0.1791133,-0.047103547,-0.052291255,-0.07727108,-0.047773913,0.0638917,-0.045888595,-0.15482484,-0.094655335,0.005924091,-0.0056475773,0.017411666,0.10070287,-0.04372697,0.18143892,0.16539355,-0.06256526,-0.08205154,0.24080834,0.048903223,0.12532221,-0.07947225,0.062418412,-0.102275215,0.09555929,0.06041543,0.063068494,-0.06695868,0.080925025,-0.0062077413,-0.000748354,-0.05572706,0.04157739,-0.016572362,-0.1522874,0.045153774,-0.100645386,0.0042179204,-0.115416884,-0.00030495474,0.13053611,-0.07309996,-0.006364218,-0.021578226,0.00085115177,0.02801657,-0.019001817,0.023510566,-0.11437656,0.032625597,0.028573995,0.04022714,0.15693468,0.078264944,0.07809408,0.024582958,0.08744371,-0.07087968,-0.037421823,0.015810138,0.17063887,-0.039257642,-0.022603665,0.10697051,-0.0172574,0.017655024,0.040335365,-0.010535434,0.006236021,-0.080271296,0.09147229,0.099850394,-0.06790392,0.16475831,0.030767508,0.10166214,0.04511091,-0.04572393,-0.04273638,0.17406842,-0.055292334,0.030831413,0.027978705,-0.0891919,-0.054808542,0.004884407,0.113964185,-0.008364833,0.020150155,0.1467417,-0.1039095,-0.016784677,-0.14346369,-0.076286115,0.19822198,-0.121098496,-0.07402359,0.074759915,0.13414387,0.13639735,-0.00073323725,0.014453085,-0.0035987457,-0.099098936,0.0069963997,0.011223005,0.09709417,-0.005424177,-0.09003058,0.09330401,-0.08807775,0.09825092,0.075459786,-0.017176906,-0.04268159,-0.06942736,0.084993824,-0.10971736,0.11785752,0.0908124,0.1767371,0.09081334,0.005929534,0.17203212,-0.031689182,0.1926,0.098168395,-0.11078154,-0.06367886,0.028104832,0.004510487,-0.06078488,-0.026466617,-0.013223205,-0.048749547,0.0123559525,-0.07929794,-0.08698769,-0.015558215,-0.085095756,-0.036496855,0.081845626,0.07321266,-0.038686432,-0.009082697,0.030673135,-0.026813824,-0.036933344,-0.016656814,-0.08083828,0.057030767,-0.00042560612,-0.04388448,0.06360651,0.19308406,0.0430571,-0.009414209,0.029302672,-0.14452572,0.0786079,-0.10726832,-0.021783348,-0.043162465,0.018196346,-0.0021776236,-0.028364506,0.13121381,-0.07604275,-0.07119995,-0.095653154,-0.029081617,0.1041063,-0.09918798,0.019921605,-0.07659026,-0.0624763,-0.080121785,0.09060768,-0.01129906,0.0034029621,-0.018154519,-0.05052746,0.028872918,0.014441493,-0.0022337404,-0.011777685,0.035909172,0.03331744,0.105058104,0.23057155,0.078377664,0.018185409,0.029180562,0.17230402,-0.097161934,-0.09535171,-0.035071004,-0.036706146,-0.03740753,-0.009259935,0.04386436,0.106176995,0.07487124,0.16953617,0.192131,0.022958726,-0.015231047,-0.14146793,0.0016387012,0.028919527,-0.0445198,-0.020868955,-0.041293766,-0.0076558664,-0.07800921,-0.079275735,0.047290426,0.02894729,0.050204176,0.05589691,-0.09232597,-0.084964454,0.028132629,-0.039301235,0.1618392,-0.015911669,0.17077625,-0.04482067,-0.001506622,0.13274261,0.008086856,0.007158399,0.17610745,0.028265106,-0.02746394,0.017018765,-0.044604197,0.07533246,0.22819161,-0.071247265,-0.013550122,-0.12959586,-0.0037458322,0.222058,0.03919131,-0.042162836,0.113703854,0.21643606,-0.03407456,0.123968504,0.1642432,-0.046570715,0.007319809,0.15018202,0.018067272,0.061484113,-0.027633203,-0.106515914,0.17242868,-0.079836056,-0.0046862597,-0.09943754,0.14613771,-0.027083967,-0.093171045,0.05884079,-0.06658946,0.056032777,-0.074039906,-0.031497054,0.11666541,-0.07659633,0.21918434,0.021521155,-0.05488157,-0.09635304,-0.12690017,-0.030214773,0.15961696,-0.027393704,0.039078396,-0.015386811,0.06686709,-0.08547179,-0.028811615,0.09068567,0.104777284,0.0869498,0.15433398,-0.07295036,0.10715935,0.04015288,-0.057670005,0.11100583,0.003453793,-0.01249078,0.06830466,-0.061552163,0.04576505,0.0065010916,0.061915923,0.019004226,-0.10603642,0.17835352,0.11635213,-0.07526236,0.05130048,-0.13570487,0.05619445,-0.020139543,-0.10051205,-0.05301653,0.00490617,-0.01716595,0.046937473,0.03748785,-0.052925684,-0.061721012,0.0057385755,0.13000704,0.15741704,0.073750995,0.08089166,0.011137941,0.1476917,-0.051782668,0.036755897,-0.053665604,-0.077250645,-0.03738198,0.16001084,0.06919327,-0.014332936,0.08576948,-0.07300915,-0.056121215,0.29150712,-0.05627878,0.036866445,-0.10683559,0.016293876,0.0647633,-0.0020190373,-0.044135984,-0.031892747,0.17247885,0.0125162015,0.1488999,0.009798846,-0.012472719,-0.04609539
6,-0.021255195,-0.010509467,-0.018537156,0.022265421,-0.044021863,-0.02698016,-0.030283172,-0.03500993,-0.03253244,-0.05218113,-0.015986167,-0.025352536,0.0025770424,-0.013300478,-0.0298342,-0.0038449697,-0.021389518,-0.13178015,-0.0067315353,-0.0020377508,-0.013648448,0.00083448394,-0.009314766,-0.017642887,-0.012437296,-0.04187055,-0.054484777,-0.037765265,-0.044607617,-0.0014375731,-0.010755574,-0.012503843,-0.025865674,-0.014563311,-0.02223144,-0.036184825,0.00010313398,-0.09626986,-0.039621126,-0.04321443,-0.02834689,-0.023026332,0.014362614,-0.014585044,-0.044998214,-0.02041777,-0.008190475,-0.020193974,-0.034996543,-0.01556441,-0.018879462,-0.046516377,-0.009221288,-0.08457571,-0.041981123,-0.152317,0.008364273,-0.054734264,-0.0219466,-0.032578185,-0.0069576683,-0.03599738,-0.008824501,0.08757987,-0.0021685509,-0.04313711,-0.03822183,-0.017270258,-0.037954714,-0.047470942,0.0045778765,-0.011124486,-0.018987827,-0.046394534,-0.0019146138,-0.014547183,-0.032268193,-0.02201403,-0.010289073,-0.051933605,-0.02814315,-0.070545234,-0.013648042,-0.03252933,-0.0278641,-0.031674158,0.16387205,-0.031788968,-0.02472159,-0.038045283,-0.010582164,-0.028438995,0.022865016,-0.023799751,-0.016396947,-0.011769306,0.0010245166,-0.058262967,-0.0029135975,-0.009360204,-0.03600197,-0.013643489,-0.14290828,-0.023122631,-0.027092984,-0.0026463012,-0.06936961,-0.019265134,-0.01776624,-0.054369576,-0.008257471,-0.009890637,0.27693838,-0.015351177,-0.042043753,0.10741306,0.0023974215,-0.0014808524,-0.034186672,-0.000575729,-0.055481926,0.005407405,-0.01789178,-0.036852967,-0.020494567,-0.005074959,-0.037167665,-0.18074748,-0.01956101,-0.023386499,-0.024455093,-0.033842083,0.0035552848,-0.007223527,-0.012264164,-0.0510687,-0.012972131,-0.042614758,-0.044020373,-0.024307527,0.12688275,-0.020075375,-0.023373311,-0.04626156,-0.0578185,-0.020080265,-0.028647948,-0.026906706,-0.025948584,-0.008506077,-0.018434396,-0.006339236,-0.029040055,0.34923282,-0.04445031,-0.0002497455,-0.041973762,-0.02514327,-0.039115846,-0.020865297,-0.030519588,-0.04030348,-0.037422,-0.053722955,-0.018975347,-0.02820785,-0.011295285,0.020167137,-0.015219588,-0.037074998,-0.014538526,-0.043116458,-0.022207133,-0.031072939,-0.026182609,-0.03175389,-0.022887005,-0.035431173,-0.029468222,-0.11094431,-0.046424206,-0.024443155,-0.001254752,-0.033228513,-0.039224032,-0.011852447,-0.024262434,-0.03910185,-0.043712135,0.04319714,-0.08534074,-0.034534868,-0.021948803,-0.021767894,-0.0116662495,-0.04699619,-0.033906505,-0.033823743,0.0069290283,-0.038293615,-0.01771252,-0.09645292,-0.009900623,-0.019479305,-0.03506542,-0.029326664,-0.02532406,-0.047668237,0.015525694,-0.034935445,-0.015196037,-0.020056868,-0.03266869,-0.049797006,-0.017923128,-0.048762053,-0.008070417,-0.0069671,-0.01311841,0.009602554,-0.027446512,-0.052607626,-0.0015907537,-0.030619131,0.18190491,-0.019225853,-0.034940757,-0.029327434,-0.040237084,-0.044530436,-0.016208524,-0.019124892,-0.028370457,0.01854223,-0.02909391,-0.0343741,-0.020059742,0.062031142,-0.015323027,0.37428418,-0.028169494,-0.014216196,0.07440921,-0.03692281,-0.009891141,-0.017432967,-0.014378349,-0.016430702,-0.009970746,0.008987057,-0.011487731,-0.016850822,-0.06170981,0.25371262,0.0011500438,-0.019801414,-0.011868314,-0.00796526,-0.032762527,0.009324729,-0.02995258,-0.0047369967,-0.02746792,-0.023865543,-0.014504007,-0.032014407,-0.037099343,-0.01875663,-0.03683448,-0.036874127,-0.011228097,-0.031992268,-0.098181754,-0.006480936,-0.01658551,-0.002553221,-0.024551177,-0.02988553,-0.0116752125,-0.029735832,-0.039481375,-0.021501247,-0.021509403,0.0013151235,-0.018432427,-0.020753663,-0.021572521,-0.0051391562,-0.055186324,-0.009781145,-0.04342388,0.0003874252,-0.0034221157,0.008689233,-0.021843463,-0.028136536,-0.0316766,-0.025319539,-0.019246759,-0.05722881,-0.019967172,-0.0023029267,-0.014787754,-0.0024172168,-0.021387434,-0.023305364,0.0628925,-0.03392658,-0.027633388,-0.043039255,0.008314703,-0.029684193,-0.031624757,-0.012860381,-0.02702896,-0.039627288,-0.000748388,0.0048873215,0.09318704,-0.03922133,-0.03219852,-0.008596361,-0.03380753,-0.05909918,0.101355985,-0.050383035,-0.068746544,-0.006066347,-0.028396705,-0.04465514,0.007836089,0.013958655,0.1112636,0.004760843,-0.008187154,0.3978837,-0.009599403,-0.026852677,-0.05255038,-0.0602841,-0.047509447,-0.020119257,0.022854185,-0.09157619,0.00012815352,-0.046116486,-0.036095988,-0.031008154,-0.05113451,-0.022157172,-0.016601844,-0.020407865,-0.022565074,-0.02203768,-0.050963372,-0.033486113,-0.03747826,-0.02997024,-0.07127007,-0.014143798,-0.016326321,-0.06191423,-0.048210815,-0.014830317,-0.043620303,-0.02270482,-0.01329217,0.23872216,-0.032897994,-0.015016289,-0.025884088,-0.0072604334,-0.041566756,-0.006863651,-0.02453923,-0.02754517,0.055732913,-0.026765553,-0.042685565,-0.008315286,-0.02721206,-0.03134197,-0.03299601,0.11422576,0.00072146964,-0.027164677,-0.015194071,-0.01031583,-0.027294613,0.30680403,-0.030793505,-0.028959172,-0.017562568,-0.03329022,-0.023406329,-0.027671887,-0.036259882,-0.004876058,-0.024000417,-0.024409004,-0.03238069,-0.04104382,0.41650516,-0.0062508606,-0.059077177,0.020136166,-0.04004758,-0.03249558,-0.044297867,-0.04163875,-0.021881657,-0.026441615,-0.010717556,-0.006850175,-0.03305645,-0.025750881,-0.014307216,-0.009622796,-0.00978922,-0.041513216,-0.0030455322,-0.014112478,0.0037754634,-0.048814043,-0.037773192,-0.044873413,-0.03670145,-0.09506777,-0.013623073,-0.033825237,-0.024078814,-0.01859252,-0.045008007,-0.020477002,-0.039021313,-0.01834832,-0.042681172,-0.010352614,-0.010958716,-0.024158666,-0.03401161,-0.03156721,0.00070185144,-0.011934707,-0.03252624,0.0025751453,0.0003669146,-0.023799904,-0.03591575,-0.047437295,-0.025770258,-0.021385202,-0.02478697,-0.035111364,-0.018047309,-0.04049874,-0.017238012,-0.03048708,-0.037258066,-0.0057582203,-0.02625689,-0.046496626,0.0059091994,-0.042077526,-0.02055287,-0.03189773,-0.043311406,-0.031230502,-0.031628165,-0.048341565,-0.00941384,-0.039252717,0.015582479,-0.0074624084,-0.011548197,-8.0666345e-05,-0.027109815,-0.01827776,-0.032182626,-0.037467647,-0.008941868,-0.017389325,-0.046119995,-0.036139894,-0.049731813,-0.0058594653,-0.027727472,-0.019336963,-0.037351124,-0.0038104507,-0.036635093,-0.037916414,0.29962194,-0.033085477,-0.012767908,-0.0237905,-0.046582438,-0.23074968,-0.006579436,-0.031893108,-0.01604602,0.15102248,-0.045956757,-0.04646461,-0.02543164,-0.047772955,-0.06803653,-0.028468944,-0.041878663,-0.010953287,-0.017891081,-0.0026434946
7,-0.032944612,-0.009260768,-0.029788725,-0.0016529646,-0.05001813,-0.02671934,-0.007723522,-0.034952365,-0.041060336,-0.02003317,-0.017283903,-0.029515373,-0.0067946096,-0.021082185,-0.011338104,-0.019527443,-0.050299674,-0.098807886,0.0064994246,0.0006044025,-0.016043322,0.005158897,-0.039213903,-0.014197491,-0.0002813605,-0.057126906,-0.07537006,-0.030204175,-0.03664406,-0.03352974,-0.066072665,-0.032291908,-0.0597929,-0.022999832,-0.021537038,-0.042306244,-0.020575887,-0.12524793,-0.035002,-0.04561793,-0.0053574317,-0.0165781,0.004855001,-0.0072347266,-0.039475758,-0.04413775,-0.0077856923,-0.02624212,-0.01590608,-0.017910002,-0.0036588293,-0.025004823,-0.04636625,-0.065358244,-0.031062365,-0.11222246,-0.03022418,-0.057850793,-0.037918676,-0.048124164,-0.048796088,-0.043095678,-0.003920346,0.09014233,-0.011185815,-0.0011282454,-0.04627888,-0.025555085,-0.039603412,-0.03759492,-0.0038997212,-0.004588731,-0.05510932,-0.030266246,-0.057817694,-0.029158995,-0.04715677,-0.0016688932,-0.0066516264,-0.021237973,-0.035465445,-0.06808704,0.011581276,-0.038273588,-0.058405105,-0.033172455,0.18333848,-0.047895554,0.0032845116,-0.026130956,-0.030013125,-0.038500346,0.016603988,-0.0068869004,-0.006124382,-0.020393457,-0.028508145,-0.03664023,0.0034120309,-0.013580989,-0.021670524,-0.009219129,-0.1131853,-0.014516991,-0.016529882,-0.034732096,-0.054493014,-0.045369916,-0.049442165,-0.06483083,-0.035077628,-0.0056439373,0.27711496,-0.009421994,-0.031296518,0.11346178,-0.0033801524,0.024247684,-0.030422691,-0.034270577,-0.035831183,0.008253623,-0.006181486,-0.06640757,-0.031256765,-0.00451844,-0.03956952,-0.160183,-0.041276395,-0.024648089,-0.015879728,-0.022395736,-0.016907018,-0.009103694,-0.049853127,-0.013058346,-0.014370848,-0.0408134,-0.025530254,-0.016115248,0.13771917,-0.024511745,-0.034384202,-0.02119865,-0.06144383,-0.043245453,-0.036322873,-0.059104983,-0.062434576,-0.046403546,-0.030607097,-0.024481613,-0.029082462,0.34334567,-0.043241277,-0.0053371,-0.023903223,-0.057541393,-0.051250093,-0.044067122,-0.038299594,-0.036230907,-0.036976732,-0.04855453,-0.0277759,-0.053970966,-0.03479893,0.046638202,-0.03905759,-0.036071878,-0.026936086,-0.015871359,-0.01651464,-0.013704075,-0.0049927477,-0.031803437,0.005248748,-0.029223436,-0.0119732665,-0.1051122,-0.038324468,-0.021747632,-0.01617712,-0.0040007965,-0.039494652,-0.031015344,-0.031308345,-0.019073015,-0.04206685,-0.002219067,-0.065272376,-0.018212818,-0.02722697,-0.054721426,-0.035743244,-0.049736544,-0.040028248,-0.020611342,-0.029136842,-0.05414389,0.003877315,-0.09560341,-0.0481033,-0.0011229807,-0.044863906,0.0017607409,-0.02551142,-0.04022828,0.0039301887,-0.0393546,-0.0070468634,-0.018395966,-0.0105129285,-0.040785793,-0.030910984,-0.060915746,0.0038320583,-0.008032745,-0.011075461,-0.01062597,-0.03841449,-0.039536532,-0.016513411,-0.032867953,0.1896477,-0.02158016,-0.055944588,-0.0053337957,-0.014438798,-0.049565744,-0.021361787,0.0013371966,-0.048523493,0.017404605,-0.0048022587,-0.02664018,-0.03497383,0.0521824,-0.01174171,0.3506493,0.009225419,-0.040417768,0.056684922,-0.024409695,-0.011621387,-0.03481338,-0.02364441,-0.019679174,-0.01826776,0.0094306925,-0.02836426,0.0010947991,-0.04894683,0.26518232,-0.019756434,-0.04293026,-0.048583403,-0.026997622,-0.033449035,0.01175679,-0.0122013595,-0.017961843,-0.030144827,-0.011996323,-0.018033322,-0.034627818,-0.021174802,-0.002171788,-0.024980985,-0.0582371,0.008267407,-0.051771898,-0.103731476,-0.009947688,-0.034092322,-0.050381873,-0.040751416,-0.026688386,-0.03842468,-0.034595106,-0.03825482,-0.027768137,-0.029174581,-0.008493192,0.005753627,-0.057088718,-0.0039330637,-0.0060227336,-0.04224044,-0.04451235,-0.0071093235,-0.004018008,-0.050774757,-0.015719604,-0.03814799,-0.04916131,-0.0416723,-0.040825967,-0.025690412,-0.04075354,-0.0061457646,0.011011951,-0.027450772,-0.005391622,-0.015935857,-0.045601692,0.06115253,-0.000914994,-0.02665897,-0.04101859,-0.017799966,-0.0036892125,-0.03254307,-0.0043361173,-0.031487938,-0.021972356,-0.038955517,-0.017577585,0.06179404,-0.053022914,-0.02570362,-0.002699217,-0.06811386,-0.06962099,0.11076778,-0.06218366,-0.03673859,-0.012855601,-0.017814573,-0.056545824,-0.02776654,3.7432957e-05,0.13650838,0.037270088,-0.03992925,0.3776142,-0.011797725,-0.03810122,-0.028827284,-0.045765426,-0.038992148,-0.027088195,-0.018392554,-0.117547184,-0.019223189,-0.030490328,-0.03392866,-0.020467993,-0.054273453,-0.028419714,-0.02338748,-0.021208886,-0.01768212,-0.048241474,-0.046796136,-0.0137743065,-0.060301173,-0.03927236,-0.05993061,-0.004468189,-0.005050394,-0.05758771,-0.07140942,0.0072331117,-0.031206835,-0.044706505,-0.03392375,0.24475604,-0.052558273,-0.024102885,0.004432667,-0.022120414,-0.046001807,-0.029625371,-0.035589207,-0.05109961,0.04427565,-0.038956597,-0.045166537,0.005505917,-0.023139335,-0.053146414,-0.03871931,0.12521999,-0.030498624,-0.029477641,-0.04178202,-0.013462072,-0.069100566,0.30071464,-0.015910564,-0.03248006,-0.013888186,-0.031226141,-0.015285298,-0.0037847513,-0.033464953,-0.035373975,-0.03555037,-0.015340616,-0.021612868,-0.032578304,0.40656942,0.00910273,-0.025563743,-0.010470477,-0.02408031,-0.03773118,-0.01801603,-0.06330381,-0.024491731,-0.037098415,-0.0012846272,-0.025604948,-0.00011988662,0.013630085,0.0020553898,-0.038046192,-0.040963154,-0.03216251,-0.028641053,-0.04158666,-0.023656856,-0.02732811,-0.035888456,-0.053750083,-0.028891258,-0.08029655,-0.035329364,-0.05948893,-0.039618414,-0.033688623,-0.02332559,-0.0066124434,-0.0413941,0.0055872765,-0.03968916,-0.027536279,0.0055276477,0.0004925404,-0.030672565,-0.04013453,-0.03750581,-0.000615534,-0.04793454,0.00311542,-0.0012463673,-0.008861918,0.0011285689,-0.009981148,-0.04349467,-0.030934822,-0.012637805,-0.032545373,-0.002919152,-0.05241345,-0.004330333,-0.014120498,-0.0649607,-0.0060337167,-0.02067357,-0.017415594,-0.00408797,-0.06367445,-0.01742268,-0.03784699,-0.045712657,-0.04273814,-0.022707855,-0.0514096,-0.022301557,-0.056540843,-0.0083969645,-0.032181393,-0.023760311,-0.0033476348,-0.0149976,-0.045787398,-0.033447776,-0.038072377,-0.00068413874,-0.012442461,-0.034627978,-0.015970627,-0.042625595,-0.0147945685,-0.037374757,-0.009856294,-0.032713413,-0.042720422,-0.05649728,-0.034932815,0.29971692,-0.019331733,-0.02384447,-0.037572585,-0.077674575,-0.23635423,-0.0057462137,-0.0069459667,-0.029286435,0.16531375,-0.034221962,-0.030463856,-0.03790468,-0.029785043,-0.051722173,-0.03194836,-0.011526132,-0.017850695,-0.05433471,0.005812519
8,0.009030772,-0.0038246592,0.0047340887,-0.10588429,0.029773885,0.039546903,0.03389382,0.029023,0.021032995,0.007159846,-0.0009415536,-0.00036430528,-0.01762995,0.0022728737,-0.013977963,0.00861365,0.012643675,0.11333368,0.010380402,0.008578452,0.011966355,-0.13739191,-0.025742408,-0.026942022,0.017204272,-0.05124478,0.03910658,-0.0065983715,0.07727751,0.0061956965,-0.03100029,-0.016173763,-0.040520187,0.016710903,0.005218301,-0.025697375,-0.014000215,-0.0036455193,-0.012140771,-4.63499e-05,0.004575959,-0.007325772,-0.11098234,0.008653427,-0.014286534,0.02954409,-0.00044780533,-0.00014274535,-0.030167585,-0.03945276,0.024456022,0.04803582,-0.031693086,-0.078110956,0.10070769,0.25175193,-0.024503943,-0.04845741,0.015023816,0.0076641208,-0.022774981,0.0040188087,0.054236166,-0.03578326,0.029996954,0.044217657,-0.015197463,-0.06594815,-0.068797335,-0.05278662,-0.02152011,0.046820585,-0.0018588401,-0.009795733,-0.04691992,0.001056049,-0.013447619,0.07923265,-0.017074877,0.03176876,-0.009481379,0.02014871,0.046827577,0.015637752,-0.005676604,-0.0029916523,0.009590655,-0.007204835,0.10978642,0.015748942,0.00091952115,0.024380013,0.08960848,0.016940266,-0.0049891733,0.0010436734,0.021519126,0.02429844,-0.011648521,0.021550974,0.024733158,0.035913415,0.05787962,0.020809459,0.014690997,-0.031585928,-0.002219578,0.019225942,0.024639493,-0.00275706,0.0069183465,0.034665365,-0.06308945,0.043228935,-0.0072290963,-0.12894478,0.019917902,0.0069643413,0.0051343907,0.019000843,-0.008492896,0.023675459,-0.0025242013,-0.032626335,0.020771699,0.014373432,0.03348073,0.3375277,-0.0023968746,0.006643031,-0.041421548,0.041949287,0.11345667,-0.036563277,-0.013068044,0.025681442,0.069074996,0.035724804,0.07449581,-0.0068285866,-0.30963993,-0.030843351,0.041401085,0.014020475,0.23658316,0.03838434,0.012815732,0.0014331238,-0.062634684,0.018099027,-0.0016906753,0.0006475267,0.0027312883,-0.05099176,0.018405965,-0.05745841,0.01666785,-0.0036228136,-0.016839826,-0.028770998,-0.02411434,0.04832127,0.011312184,0.017774034,-0.024975607,-0.00683555,0.021424903,-0.15005682,-0.036598045,0.022819575,-0.004756562,-0.013667792,-0.019677537,0.013455006,-2.076161e-05,0.056192044,0.042295597,-0.00454745,0.084142655,0.15824835,-0.012495896,0.03950462,0.0041023004,-0.01122944,0.009204488,0.0042400667,0.03808134,0.022434132,0.010106922,-0.06284014,-0.006297322,0.0053167944,-0.025170539,-0.023432275,-0.008257056,-0.05134988,0.024347112,-0.048466682,-0.0116644325,-0.036289733,0.004136419,0.33492863,-0.014194569,0.0180938,-0.0299326,0.016137656,0.011921656,0.056342967,0.0038959933,-0.0062211235,0.016912749,0.026133578,0.06751898,-0.004655041,0.032490745,-0.025419664,-0.00434307,0.07380942,0.02214911,0.037591457,0.03213003,0.034164786,0.006229893,-0.077755265,-0.0025078573,0.0058149067,-0.04002512,0.0029810604,0.060155056,-0.027541557,-0.00395883,0.012329485,-0.023758627,-0.021647787,0.051052567,0.033124033,0.030682633,0.070014864,-0.00409167,-0.068485245,0.039805148,0.016141267,0.0019924345,-0.023311064,0.07435477,0.019102713,-0.013059758,-0.0042924806,-0.028053736,-0.0005654932,0.074902326,0.11759129,0.0721358,0.05351823,0.030296572,0.047510862,-0.016078975,-0.0036004698,-0.0022143978,-0.014976937,-0.016700309,0.03567776,-0.038821623,0.021949315,-0.0017748228,0.035698224,-0.014396194,0.022795351,0.011296406,-0.02436739,0.008051867,-0.05177447,0.025179248,0.04149418,0.0061636795,-0.03341542,-0.0017009903,0.0012809045,-0.020778418,0.021797076,0.025194148,0.04120218,0.00957157,-0.0021517093,0.029652385,-0.014840758,0.014069567,0.037409477,0.019416902,-0.0026683765,-0.0038459864,-0.015891865,-0.052152246,0.044835698,0.044457316,0.061171018,0.026489954,0.010165734,-0.06401835,-0.0060899244,-0.00048324282,-0.000905473,0.03138236,-0.018433336,0.008209125,-0.008443523,-0.17476933,0.03222411,-0.022569189,-0.012875149,-0.03883549,-0.024635775,0.0015380788,-0.020859294,0.012042281,-0.0017125577,0.0011634188,0.018055197,-0.027191406,0.06513261,0.026406068,-0.105776876,-0.03215328,-0.037787173,-0.1000424,-0.019973926,0.0063829543,0.018340329,0.0041145203,-0.012294236,0.03626665,0.04671959,0.010350364,0.14200969,0.026723841,-0.061191153,-0.015644036,-0.026087275,0.037697066,0.023589354,0.006210518,-0.022385167,-0.0158128,0.092676885,0.017476343,-0.0059839534,0.0027651552,0.026835447,-0.108579434,0.050859287,0.016253328,-0.009289232,-0.000555323,0.014131483,0.050463405,0.036640216,0.0044716494,-0.005394769,-0.09687984,-0.021839598,-0.12617552,-0.22488642,-0.1595693,0.025065534,-0.026430555,0.069587804,-0.0008031346,-0.019500678,-0.008920643,0.015586825,0.025708089,-0.05348212,-0.037364468,-0.0065174843,0.01054042,-0.023400651,0.046553694,-0.0022423042,0.016022792,0.046840947,0.0016909918,0.04193115,0.003916452,-0.13299546,-0.023558186,0.019386107,0.06626512,-0.015986077,-3.0305871e-05,0.04991456,0.0320039,0.06596091,-0.012310098,0.04889387,-0.005875562,-0.015569015,-0.0216802,0.001829398,0.044404984,0.12659124,0.069247834,0.0063803247,-0.24195023,-0.021927023,0.035841413,-0.020712184,-0.07639785,0.037972827,0.04767667,0.01436012,0.027885068,0.038371705,0.06902507,-0.032626,0.03024994,0.012982558,0.0229835,-0.029194962,0.05724782,0.018818295,0.0077204793,-0.01672992,0.016456092,0.038518865,-0.008391395,-0.015874939,0.027348753,-0.0105447555,0.065110564,0.090051636,-0.022374915,0.010995393,0.039725516,0.03878813,-0.0029866071,-0.052039757,-0.032125615,-0.051723026,-0.065972954,0.0084467,-0.031191088,-0.021133136,0.013177509,0.058384646,0.08270161,-0.025771476,0.0068264403,0.03256828,-0.0021033003,0.0068753515,0.08090634,0.029512357,-0.030609481,0.010844176,0.04889741,-0.015066183,0.006489746,-0.011865222,0.015988695,0.0067723445,0.011912569,-0.021171834,0.000639148,0.022555783,0.063819736,0.042631295,0.16724668,0.026888685,-0.04608536,0.016769972,0.018146917,-0.0067296736,-0.049214013,0.027357733,-0.014712824,0.032579854,-0.025379509,-0.028066339,-0.014965284,0.05297761,0.039408654,-0.02343734,0.015562494,0.0033530311,0.08333597,0.0051415754,-0.02521868,-0.053194746,-0.032146867,-0.007325078,-0.011944866,0.039879188,0.23971647,0.027118172,0.040566225,-0.11727617,0.10964551,0.11958541,-0.02436118,0.012695627,-0.026075197,-0.14918946,0.017583923,0.014155724,-0.011628226,-0.03178474,0.020713266,0.10633869,0.028569581,0.03260624,-0.055476543,0.08541712
9,-0.030440748,-0.009375588,0.03315318,-0.12942915,0.0065661366,0.007901957,0.022694869,-0.0043266425,-0.012388515,-0.01386093,-0.011764159,-0.02426564,-0.011713036,0.027936952,-0.027651371,-0.013939851,0.016709082,0.11269279,0.00646702,-0.0024565493,-0.0027915598,-0.11661238,-0.014630133,-0.030552555,-0.029393816,-0.04384285,0.07474525,-0.004104499,0.09637155,-0.0054359036,-0.01771529,0.026178474,-0.015849682,0.009154749,-0.004015803,-0.026225956,-0.010532476,0.020014323,0.009137383,-0.0016159189,0.017973334,-0.017764272,-0.08622323,0.009118619,-0.006649829,0.042078454,0.012668892,0.034670044,-0.002416438,-0.039206874,-0.003601671,0.0456413,0.0015406545,-0.09341617,0.10260122,0.26960933,-0.029460022,-0.066304974,0.0022132609,-0.013328098,-0.03340843,-0.0013813666,0.025555434,-0.027570797,0.0025312463,0.031125018,0.026647981,-0.07800578,-0.096737795,-0.07464677,-0.027181305,-0.0047479565,-0.0065529947,-0.0023692145,-0.045373727,0.014065946,0.0228125,0.06465221,0.013263318,0.009147627,-0.007037242,0.01577306,0.03877953,0.015550859,0.0010593012,0.009472296,-0.0042343414,-0.014393926,0.11552832,0.015297133,0.027787218,0.017164309,0.08410692,0.0136937015,0.012258387,-0.0012060883,-0.0072258394,0.0007758723,-0.0073933764,0.031494606,0.06618796,0.039525375,0.04642862,0.0037614275,0.038374927,-0.05715729,0.02428101,0.0020858597,0.013079389,0.042245306,0.03036159,0.009071946,-0.026381042,0.027185505,0.033776034,-0.116787426,-0.004540591,0.008695237,-0.007813649,-0.0072057927,0.0024079692,0.003332523,-0.0040851776,-0.033493835,-0.0103516085,-0.014003597,0.02776581,0.33698308,-0.022868881,0.024171855,-0.036940422,0.02217911,0.08551795,-0.036805294,-0.015496506,0.032549802,0.07543277,0.0005302948,0.032065246,0.018310275,-0.30241868,-0.03377275,0.022139657,0.021678677,0.22458887,0.028892787,0.03037288,-0.0137218535,-0.044106558,0.022066362,-0.033850178,-0.014412487,0.020786665,-0.016928963,-0.0026755866,-0.07604911,0.014581353,-0.009104161,-0.0026628221,-0.013691332,0.008057754,0.040538196,0.037272856,0.023084663,0.00034199518,0.018614292,0.016412424,-0.17095092,-0.023873953,0.029820424,0.013710183,-0.0009877766,-0.009126913,0.02323907,0.027441401,0.040847737,0.0054373876,-0.009761515,0.08438366,0.15232474,0.014739409,0.059568096,0.021912785,-0.005806954,-0.026566356,0.02761327,0.009918034,0.010036087,-0.002725545,-0.04165082,-0.0061854688,-0.006955421,-0.031754997,-0.028922608,-0.010926232,-0.038606092,0.015815623,-0.038762074,0.00945204,-0.04520618,-0.02543843,0.31497112,-0.0069294907,-0.0064582415,-0.019397123,-0.019140488,0.008192966,0.04286393,0.0011002105,-0.037473917,0.012384358,0.0025223936,0.04941949,0.039185125,0.030998457,-0.0067694457,0.00861313,0.047737908,0.020681402,0.029795596,0.03208217,0.032751072,-0.018906489,-0.035005912,-0.011873575,0.0011117173,-0.032413688,-0.03292668,0.024245936,-0.023441678,-0.023518847,0.03047214,-0.03175225,-0.047208343,0.04176398,0.019639011,-0.005868231,0.05945071,0.020153964,-0.06701001,-0.012696723,0.030946337,-0.026965935,-0.012886075,0.04454762,-0.025743943,0.0077900435,-0.024748929,-0.0142355,0.014157733,0.05616116,0.13868248,0.08096967,0.0841382,0.017810082,0.01315593,0.017908117,0.014237517,0.01131809,-0.012736227,0.012975204,0.019430479,-0.018316856,-0.0065038544,-0.0022895143,0.03490055,0.017770758,0.008411163,-0.0017440767,-0.010271529,0.0018530292,-0.0486305,0.01847521,-0.0064819744,-0.007868283,-0.011532787,0.004399741,-0.008680849,-0.022852508,0.04301418,-0.004997222,0.0030030014,0.019780105,0.017050613,0.040747646,0.0057082125,0.0034357512,0.03618237,0.032110725,0.004057448,0.014705279,-0.009847128,-0.056163277,0.048314143,0.043525614,0.048830293,0.036008332,-0.02553951,-0.045946777,0.010173878,0.0069572614,0.03203497,0.007024371,-0.0028933135,0.03884533,0.0002298367,-0.17510621,0.010967052,-0.029803565,-0.026482146,-0.016131235,-0.0005323414,0.027348269,-0.0050341124,-0.007660441,-0.03476903,-0.028744614,0.0030243704,-0.020002624,0.07042636,-0.013242861,-0.13582034,-0.021018282,-0.04196852,-0.100653924,-0.020001741,-0.037474997,0.0056384606,-0.012859945,-0.043189943,0.033614643,0.014144786,0.00052518776,0.109221555,0.022818768,-0.039385423,0.007625316,0.0008163914,0.042276435,0.019084403,-0.021467522,-0.0006745591,0.021327894,0.118840404,-0.0038795234,0.015355221,-0.020970184,0.013144876,-0.10374431,0.04841744,0.05257602,0.0044917655,-0.003707864,0.007776916,0.0026457515,0.05316198,0.009167762,-0.0045756875,-0.09618073,0.016337056,-0.14604607,-0.20009537,-0.15335074,0.0027900983,-0.040175874,0.05553354,0.016925786,-0.04262243,-0.01762935,0.03228017,0.02318715,-0.07378133,-0.04825123,0.02856325,0.025781102,-0.021242369,0.029452395,0.0063983686,0.012783092,0.037476804,0.015965007,0.019824384,-0.007484003,-0.106587015,0.015590246,0.016059432,0.0958208,0.007545359,-0.023296133,0.031533178,0.0007152862,0.06861036,-0.030578598,0.028619315,0.000625525,-0.0064210286,-0.037859127,0.017798904,0.01386395,0.14029646,0.07571809,-0.0066749165,-0.24241169,0.013484255,0.032172337,-0.011505078,-0.10294162,0.020857431,0.03643693,0.0040618475,0.022956723,0.020179983,0.080296196,0.015197725,0.020740658,0.025361666,0.0006823214,-0.05305584,0.04665938,0.026979616,0.025315782,-0.019205064,0.054192647,-0.0015098858,-0.030512558,-0.0006974017,0.029342802,-0.008829289,0.035897497,0.08119894,-0.009518748,0.008527971,0.03182142,-0.004044421,0.012341497,-0.051436923,0.0010020997,-0.050750818,-0.07487402,0.029277181,-0.006733975,-0.038450453,-0.032830223,0.06532598,0.10274974,-0.016392857,-0.039439704,0.0035140344,0.012811879,0.01633124,0.0704065,0.028851975,-0.026272405,0.0064749676,0.019764235,0.012726417,0.02904205,0.02059523,-0.0132081965,0.013266482,0.009661938,-0.027175521,-0.019473359,0.038533334,0.0392856,0.002169382,0.14789322,-0.0028765802,-0.03375652,-0.011861541,-0.020656947,-0.0055063376,-0.062298153,-0.015223454,0.033099677,0.013169817,0.011921011,-0.028734587,-0.021590156,0.07112061,0.0036418573,-0.036559418,0.026285548,0.024044713,0.08824139,0.043837696,-0.0074767494,-0.04804151,0.0012467711,-0.014228933,0.01531158,0.008818218,0.21598159,0.038738795,0.021475239,-0.10440737,0.11361141,0.11560883,-0.021370653,-0.032786477,-0.017386384,-0.1600291,0.010463934,0.015342066,0.026152086,-0.043605857,0.022103641,0.06628623,0.013050257,0.045224946,-0.051945113,0.081531934
